197.935
2.01688
-0.558995
38.4193
196.042
0.299555
-0.494858
1.77703
1.07688
-1.91973
4.71209
200.779
200.891
200.737
-0.161702
197.816
1.99533
22.2375
194.944
6.60157
192.285
199.313
197.754
0.175419
0.130052
198.993
-1.17374
-0.669058
197.713
199.817
-1.30101
198.764
201.521
0.817456
200.322
-0.0521357
0.868337
198.844
200.587
197.418
-0.477592
199.39
0.178853
4.53188
201.6
0.135704
196.862
198.98
196.912
199.292
2.39921
2.58583
-1.83064
198.209
-0.129024
198.333
2.78763
199.768
199.839
1.12328
199.934
1.77607
201.083
199.963
-0.805858
199.502
200.369
-1.10152
196.704
-0.289618
191.735
194.991
200.571
-1.03805
-1.41951
199.018
-0.159705
0.379252
0.100774
4.7851
1.12617
201.052
-0.773675
0.0350496
199.987
189.66
199.159
199.697
-1.07245
1.00346
195.223
-0.861246
201.229
4.50378
0.134436
1.27867
200.966
0.186408
200.715
1.09912
5.4976
200.864
11.5346
191.237
5.87659
18.1424
199.715
198.522
-0.17169
200.136
201.81
189.37
200.829
19.473
-1.1977
-0.208213
0.879593
-0.71963
198.681
0.344568
2.58781
193.04
200.429
-1.14206
0.289031
197.966
-0.130569
200.815
0.214491
-2.00697
198.164
198.921
199.181
198.962
-0.337583
186.856
0.325388
199.768
199.016
200.785
195.987
197.791
1.63262
-1.30456
200.131
198.433
-0.92544
-1.33943
24.6995
-0.0402842
199.746
15.7889
199.365
-0.97827
199.576
-1.15564
1.43288
200.331
2.02094
199.546
196.848
0.649542
199.769
201.21
2.3547
200.284
-1.84394
199.198
1.32579
200.627
-0.141052
200.105
198.489
3.96868
3.485
199.275
199.467
200.383
-1.9192
3.66681
192.942
0.392817
201.664
0.745432
1.13844
201.538
0.9665
197.838
1.28828
199.358
198.767
0.231962
0.909259
1.24683
-0.619803
198.86
199.793
2.00396
185.83
-0.624853
1.16259
1.89763
200.225
201.275
195.488
199.343
199.099
199.691
-0.34972
198.205
3.38991
-0.561202
0.219742
199.089
200.186
0.711522
1.01193
1.67922
-1.05196
5.7211
200.151
198.951
199.685
197.623
1.65728
1.44097
201.406
-0.856018
1.40754
-0.626378
-1.27353
0.902963
200.895
201.072
2.16948
-0.867806
0.419656
200.741
-0.322992
-0.168465
188.902
200.343
-0.185953
-0.176738
193.278
201.419
198.741
3.08402
0.336587
0.171662
0.503172
199.529
0.0916109
-0.716951
0.660691
198.596
1.59453
-0.774066
200.025
201.16
198.753
-0.559237
198.936
199.558
1.80725
0.998273
0.688988
-1.86672
-2.11467
0.693319
192.129
-1.3751
201.034
7.55038
195.456
3.1871
201.385
199.957
-0.430359
199.542
-0.255246
2.08854
1.7173
199.047
-1.99333
200.353
200.32
-0.32372
-1.73192
-0.345102
200.123
9.58308
7.73722
199.992
-0.260444
1.36575
1.9515
195.607
0.8279
6.90654
0.332081
2.71939
11.7754
-0.339818
4.49838
199.661
1.12452
200.342
200.17
0.380527
1.15205
194.533
1.00164
194.93
201.033
199.773
200.293
200.452
10.2016
13.0601
-1.91113
200.103
195.708
1.79361
3.18405
196.77
-1.07051
4.25258
199.463
198.308
200.668
199.868
201.873
196.309
201.452
201.494
201.374
199.269
11.8247
201.086
199.279
194.834
0.106103
1.33399
199.897
198.521
195.692
6.86435
1.31808
1.08385
0.370108
-0.452184
-1.4651
0.505534
201.336
1.24656
200.12
6.0503
1.44205
2.51363
200.029
194.968
0.951962
-0.543986
201.633
198.705
202.361
-2.00782
-2.13728
202.007
-0.357515
-0.973017
200.775
190.317
200.243
200.393
201.609
199.953
183.779
196.363
201.084
199.565
2.36689
201.511
197.415
197.928
198.554
4.0841
-0.112185
200.968
198.293
-1.06406
202.635
3.51409
7.12629
-0.951712
200.551
-1.56959
-0.3642
1.42669
200.134
198.587
200.775
200.541
-0.568267
2.11025
-1.44814
196.55
184.892
200.516
-1.13233
2.9325
199.502
0.761215
-0.133265
198.834
-1.73793
198.308
0.712863
1.84409
194.431
0.879034
199.628
200.661
201.728
4.15062
198.498
8.48225
199.612
0.202608
200.045
197.424
17.9374
1.0859
199.582
-1.68565
189.736
-0.244411
200.827
1.21052
6.30925
199.168
199.075
200.685
201.457
196.951
201.353
199.918
200.505
198.595
0.750667
-0.123966
0.183531
198.035
0.73751
201.549
2.19353
-1.50502
198.064
1.73218
0.516459
198.884
201.434
199.811
7.70412
-0.611791
-1.94349
-2.36955
4.53798
200.729
0.206985
200.307
201.218
198.427
198.723
199.747
0.197374
191.081
197.67
0.208319
200.718
4.66369
199.075
1.13126
198.489
194.302
0.963213
200.565
200.599
0.0878705
5.9852
199.055
-0.0451164
197.39
-0.92055
200.434
198.689
201.542
201.277
1.3289
201.651
1.09632
-0.236093
196.914
172.424
199.423
-0.693762
0.0917242
197.53
-0.631452
199.609
199.752
1.66991
200.983
0.970698
195.895
-0.113458
3.02422
-1.36404
202.115
198.666
199.391
200.559
199.913
1.65843
-0.791997
0.901437
0.559577
200.731
-0.387202
-0.496366
199.755
5.92736
199.942
200.758
-0.07714
199.476
195.875
1.67137
0.680234
201.866
200.634
1.80801
-0.228984
1.57721
1.02506
1.35632
199.283
1.15733
1.1933
199.188
5.53058
1.27914
-0.703083
199.713
-0.796692
17.4995
-2.68621
200.217
194
202.238
197.795
198.647
1.90973
199.54
200.978
1.59251
1.65489
200.14
200.165
197.808
198.962
197.039
0.418956
-0.038298
1.4049
200.838
199.771
199.877
194.498
200.044
193.806
1.80823
15.9978
198.288
3.60935
3.22831
-0.923415
200.981
200.898
200.915
1.16112
-0.273772
197.591
199.978
-0.66034
198.582
198.341
-0.0181601
-1.46177
199.105
0.827934
200.228
198.761
0.884132
200.74
198.334
198.317
5.00419
2.53135
7.04984
1.03024
-0.034942
0.764723
199.173
197.524
199.759
6.11244
-0.39069
199.505
7.5289
13.104
1.35972
-1.25926
202.149
4.41187
10.6916
1.83871
202.219
2.62333
0.0823311
200.15
195.911
193.028
-0.562539
198.054
198.672
199.06
193.643
201.856
1.63731
1.28338
21.9476
198.998
-1.61668
199.246
-1.4803
199.005
201.408
198.865
193.642
200.088
-0.825821
5.23061
-2.56576
200.432
12.5124
198.249
200.47
-0.984639
1.5787
198.941
-0.708089
1.7645
-1.20249
0.085952
0.850072
0.291448
4.61831
199.548
193.458
199.655
-1.38279
8.44395
197.448
199.808
191.683
199.788
0.490936
-0.397237
9.61787
-0.509511
201.249
5.50642
0.433149
200.089
201.268
199.814
200.008
7.04625
1.69509
199.91
-0.480324
200.061
199.773
199.36
8.95186
0.721982
6.11662
53.9048
12.1756
0.54192
-1.41985
-1.42286
-2.07684
5.99246
3.88075
1.60943
199.522
201.697
200.673
0.662992
199.911
12.2772
5.42386
1.02465
-0.830497
202.709
-1.1942
198.807
200.903
-1.84701
-1.53869
199.48
-0.742945
4.34307
1.18999
0.136445
201.123
197.304
198.592
0.565596
-2.43091
198.731
200.035
197.768
202.123
1.99171
153.375
198.789
-0.0772814
-0.707746
0.162265
196.914
1.08494
198.818
199.85
-1.87919
5.56781
0.595489
6.90376
198.643
1.2238
199.748
-0.184836
-0.468548
200.932
-1.76077
199.069
0.0918514
201.322
-0.551223
-0.67732
-0.476416
200.709
200.465
-1.66295
199.59
199.407
201.025
3.03063
-1.95463
200.071
0.65242
-0.659584
-1.43157
8.43924
6.95284
-0.686719
3.63583
9.03806
194.995
-0.296101
196.007
198.892
199.365
201.173
200.116
196.507
4.4502
-0.748545
199.752
200.124
200.674
0.702737
198.596
200.356
198.49
190.865
0.456297
195.313
201.184
200.786
200.186
-0.935897
198.1
0.484634
-0.134795
188.174
199.44
1.30078
-2.26851
8.77076
-0.336228
2.43062
194.761
1.11597
0.667904
199.195
200.253
198.843
-0.605163
-0.0830107
2.20396
-2.03718
198.424
-2.01827
0.550564
191.511
4.973
0.237266
195.368
1.91768
6.44934
2.59264
-1.05094
-1.3381
201.682
202.099
200.711
199.6
1.20559
194.484
-0.0635161
197.785
5.21477
-0.98787
-1.52807
-1.25291
3.63883
-1.00318
-2.21238
201.418
-0.278317
200.952
-1.27255
201.132
7.62021
0.503347
-0.488312
0.069197
200.182
-0.331077
197.571
8.53385
185.486
199.764
199.071
-0.407652
-0.630404
199.65
-0.356561
0.751883
-1.00528
-1.46028
189.906
184.948
4.65187
192.461
200.586
-1.47213
198.133
-0.59482
199.301
0.676007
9.71529
1.44254
-0.0241916
198.883
200.896
-0.479108
2.13118
0.0715243
200.676
-0.799133
201.272
1.12608
201.362
197.234
200.849
0.722295
2.3598
200.545
199.276
-0.0732458
6.64297
-1.16431
-1.00721
-2.45231
198.865
1.04258
193.663
0.397971
202.772
-0.983861
200.072
1.40026
0.740277
9.93105
-0.019793
-1.3124
3.40218
-1.74376
0.0107395
198.068
202.33
198.984
0.0595306
198.568
0.111373
197.531
9.44414
199.761
196.49
0.442285
200.344
2.78785
200.138
-0.101247
0.47844
2.40654
194.224
201.842
147.258
1.25785
1.61703
-1.47257
200.735
-0.522263
2.79781
0.954571
199.987
200.76
199.959
198.865
-0.253452
-0.814324
200.047
195.157
-0.113407
199.324
2.49611
2.28245
0.317796
-1.58119
-0.102848
0.162075
200.183
203.061
200.809
200.593
1.93123
-0.812847
-0.00602139
6.40715
0.865321
-0.344784
200.758
0.810031
200.163
0.697418
199.413
13.5254
194.034
0.775734
200.977
189.014
199.686
13.5379
196.397
1.02651
199.797
14.8669
-1.1498
198.672
0.119793
-0.877481
200.59
200.011
198.854
