9.94259
-0.00790451
-7.54306
11.3227
34.7969
11.3165
-0.685039
-1.30246
17.7206
-0.548225
8.73648
-23.516
-58.0454
-50.0036
8.88052
-13.7451
19.7607
22.0017
-66.9548
0.946519
9.01286
-44.6873
-77.7138
-18.5948
17.314
-59.4511
-0.433175
0.151975
1.50581
67.4071
0.56974
-39.606
46.9682
1.16808
62.7425
8.50005
0.345928
-5.15284
28.1446
-69.6758
9.31018
77.9007
-7.75255
9.15714
-51.0601
0.11036
-1.23361
6.80522
17.2326
-0.709885
9.29413
-0.0323347
10.2588
35.5293
0.508225
-28.2919
-11.1798
-0.278975
-16.7576
0.50064
21.5877
6.63009
-9.40168
35.3653
-5.97116
-42.9595
24.3038
0.364326
-30.9382
0.97888
20.2576
-45.9797
30.09
5.78467
-14.8134
19.1591
13.921
-19.9392
-0.334233
4.40645
-7.52819
-31.8417
16.7712
0.10812
40.0162
-29.5495
45.9306
9.15959
0.33514
-0.0888682
-2.55312
0.660363
72.9878
5.7525
-8.04181
19.6131
48.4136
5.46016
1.47424
-0.426489
13.1907
3.16253
-0.913856
6.66422
0.126419
-7.73022
16.4004
-37.8146
-8.06187
14.0907
5.01352
-56.3043
-0.208548
16.0315
-21.1184
-8.04271
0.780802
0.00872308
10.0938
0.334971
20.5125
-76.1585
-36.5992
0.187714
0.0184848
49.0435
12.8351
60.6795
0.15292
-18.0973
54.4109
-24.7036
49.6748
-46.6007
7.78548
-19.551
0.945941
-1.04103
-21.9678
62.4808
72.0941
-60.0431
4.25815
0.090105
14.737
33.5886
9.12291
-4.57472
-5.26231
-18.8662
0.213532
-15.6169
-36.8693
-9.55747
88.6107
-6.31243
0.710642
75.3024
-0.142142
-20.647
12.4847
5.01863
68.6231
-23.2085
5.04515
24.3608
0.458179
-7.34743
-12.0856
-39.5224
3.34214
43.9926
51.9361
-10.6084
-17.1202
78.4817
35.0751
-21.5614
6.19013
-22.9987
-8.37152
-0.3159
-77.5652
-3.09105
-1.01136
2.71068
-34.1878
-29.9638
-7.87647
15.8129
1.49571
-0.324908
0.690433
-18.224
-10.1453
21.5954
-2.44703
0.326855
-3.34156
-9.90138
0.202992
-8.9261
6.5634
-16.2599
-12.7809
-1.91355
19.255
23.9942
-5.62209
9.77577
14.0335
-7.36994
-17.1348
-11.8885
40.8766
-3.3727
-0.640247
-10.3833
12.7693
1.95533
-12.2431
32.3999
-1.81806
15.603
0.919559
1.37308
-6.97592
-0.0670656
-24.6678
7.90425
-0.707207
-0.0777778
54.4334
71.1185
-0.229725
-5.17942
-11.032
59.8493
-0.035474
-0.116126
4.70909
-17.9656
-11.4278
-6.54255
60.0853
-26.2826
49.1805
-16.6324
5.61448
21.2514
-7.41692
-43.4702
-16.0914
0.175908
0.430958
-57.2363
0.912825
-20.0535
-27.7967
14.3649
33.3339
-4.68398
8.42374
-51.0016
19.7418
26.6038
-0.395246
8.87061
-0.483554
0.281495
-26.7846
13.2256
12.5411
21.0721
-57.6528
5.26744
-56.1295
73.7669
0.0239456
41.6162
-3.74769
-12.0213
0.40567
-11.767
-0.469931
-84.5849
83.3787
4.82292
14.7979
3.45848
-28.1609
-8.11792
-7.08897
-35.3693
30.6726
-2.17209
0.561915
72.8406
6.54144
0.0457236
-0.329073
-0.813664
-12.5147
0.541893
0.141013
3.54989
0.566568
41.3361
-11.5704
0.808947
15.6572
4.63874
-15.5363
-70.2025
-53.8985
-51.5421
-47.8842
-41.5607
-36.6905
2.44158
1.93873
63.3916
72.0334
-0.241292
-0.0981643
36.9967
0.641343
-0.753188
-62.5063
-14.8941
-84.1492
10.5836
-19.4531
45.8703
-24.9811
49.5531
15.9789
33.378
19.397
83.3459
-24.4975
22.7387
-0.571631
0.139327
20.1588
7.07352
57.0962
1.84575
-0.726201
0.121295
-8.84595
0.0962162
10.5616
-5.8519
42.6696
-3.34287
-5.45686
-9.60949
-4.17432
11.6123
-9.82572
-14.0166
17.9246
-3.6286
-12.8448
12.4249
-18.8896
0.558393
1.06593
-6.83495
-15.3127
-0.502502
-45.3854
-17.7053
28.3657
-21.796
-98.3574
32.3983
56.3366
13.2011
-9.53763
-6.72245
-6.97764
-8.05119
1.45308
49.5541
-7.28598
-9.5159
6.43932
5.35362
63.1994
0.694815
27.0398
5.10806
-2.67857
10.065
7.75829
-23.0834
1.84176
7.44333
82.5949
-49.3607
29.8357
15.9703
-12.4113
-6.41312
-0.296779
-4.15828
12.8883
-1.86344
0.106486
-30.2536
-11.1626
0.169864
-9.27434
-18.0611
-8.30131
54.5737
-12.7761
-11.4186
-41.4694
0.397794
68.3305
35.6198
-8.52488
34.4339
72.8072
22.5054
-53.6599
0.475238
58.1525
-21.9091
19.3211
-0.469285
54.0311
1.02307
-33.3869
-1.14143
68.6797
6.8549
3.38641
-70.9877
-28.004
-5.98068
-72.2995
36.2322
-10.7479
-7.40027
-47.3601
-8.66326
8.5629
-7.7323
-0.379294
21.9249
-5.5073
17.9393
-5.53004
16.163
57.5422
1.80574
0.0866184
-7.28959
22.1508
34.8467
6.47941
3.56496
6.00442
2.1746
8.48754
-7.30798
-4.49587
-28.1243
0.621386
42.1879
-80.5109
-39.2733
2.13721
-8.6419
1.76808
-0.0452739
-75.7967
-20.3182
-81.3133
-0.196599
-33.982
10.0262
5.0875
49.0523
-28.429
7.80562
21.3361
47.879
5.53557
-28.8975
-0.340498
54.3033
5.50788
-48.7978
-14.5312
1.46713
26.2626
-0.873036
7.18867
-43.1258
61.3612
30.6761
39.2332
-17.6205
-61.9079
0.563091
42.1402
33.7161
-9.86175
-21.9695
-6.41553
38.2368
3.56675
7.14747
0.290776
20.1512
45.7803
26.6135
-36.3921
8.50868
0.327089
-2.39793
6.66964
9.54375
87.0773
1.8886
-3.40583
9.82027
2.32806
4.09759
28.7611
-0.323078
20.6442
-72.0513
-23.2093
-12.1691
56.4976
4.33553
-11.4126
-3.85659
1.70265
-0.613828
-5.79787
63.7876
5.84762
-8.44967
10.6744
0.625799
7.04728
1.24081
-16.1944
-6.79716
17.6686
42.3292
-6.48331
-7.32233
16.4677
15.9042
46.0942
8.18972
89.2207
-9.26591
-18.08
-3.18534
101.089
-12.7442
17.323
-15.4901
-61.423
-6.32009
0.216393
6.30033
35.9382
-29.455
-1.26489
32.924
-12.3401
31.7217
0.0295526
-15.8266
50.7103
-28.0177
12.0554
27.3711
-1.74152
-20.912
-26.8467
5.63729
0.00366541
81.5238
-14.5685
1.05501
-36.1393
-8.00139
-20.8349
10.5115
6.33812
0.231567
-8.36635
-26.1562
10.6402
58.919
84.4719
12.1481
-5.48205
-0.650169
-26.8121
-4.54944
-0.0839256
-0.398737
6.43163
53.748
-45.9572
-7.37265
-3.99803
30.9973
-14.8038
14.1679
-24.3689
-37.5676
10.9561
-14.835
6.3808
-0.474877
-33.9347
5.60035
-0.0331588
-73.0279
38.4236
37.5251
-0.102098
-36.6464
77.208
31.9444
-4.74839
-23.1659
0.472109
11.5214
-22.2488
-23.8669
33.1607
13.4749
2.89751
-34.7168
-71.011
-3.29458
-9.59918
82.1809
-9.41696
1.14503
0.446414
26.8528
-3.00379
37.608
43.3628
-0.223821
-3.65091
-66.5567
-13.8129
6.48791
-9.49831
-0.629033
-7.14792
-0.367914
-23.7255
81.0482
-19.7764
27.478
0.169412
-3.88823
100.576
69.2607
13.3208
-7.21227
-7.65637
-7.34101
3.34023
-0.103295
-11.8429
-0.580285
8.43094
-43.2815
19.4715
0.583114
-51.9545
3.16944
0.0900959
57.3071
7.40234
42.4635
-35.8301
68.3895
-16.0654
-8.02648
45.7382
-46.2379
-25.6739
9.1408
13.8539
1.70015
0.972496
0.477463
3.23278
2.66187
75.3209
-69.7318
21.5878
31.4753
23.8663
-18.4337
3.40183
-0.387325
-6.51438
13.9226
-11.9679
-100.03
-36.9224
-2.44116
-8.6223
-67.4539
11.0735
-6.92296
-7.90875
-6.80215
18.3652
-29.1529
-5.30606
-1.56866
-31.9415
-37.7259
59.2197
-76.6449
-0.714686
-0.979712
26.3346
24.6196
-13.0258
-6.04376
-1.17002
-19.0178
-4.58929
-15.9954
5.39583
-8.1374
-0.354601
-11.8614
10.7909
67.8587
12.4378
34.847
-6.99663
-8.49753
-61.9264
-0.599868
-5.85338
2.2121
38.3408
0.67253
0.0207609
4.83595
33.5121
-4.97426
-17.1504
74.6736
-14.9727
-30.7245
-0.212622
-3.33784
-6.75292
0.0960425
-0.527654
-12.8846
-0.279208
6.64433
0.0709244
-30.5585
0.61017
17.0608
-23.7218
-41.4186
-31.733
60.2466
24.3187
-64.9507
35.9602
8.31218
1.17542
-66.0447
30.8637
-16.0425
-0.765176
41.766
37.6523
-5.54888
60.6894
-0.153349
-8.34301
-38.3626
-7.77634
33.1473
13.9967
9.45549
-29.7474
-8.52059
-16.5928
-23.7224
-0.425498
-22.8515
5.50764
-6.45315
0.688109
47.3699
3.08458
-12.1648
-13.6806
78.276
49.5228
-15.674
-15.0632
-0.0882979
-4.37465
-9.20374
21.9848
-10.338
26.433
7.62089
10.2383
-35.384
1.59986
-6.6568
1.22575
1.82794
0.573327
-29.5844
-61.359
20.1369
8.64144
-0.378946
-27.6314
-2.38329
34.3674
-4.06268
-34.4579
0.0248815
-0.13481
2.78652
-5.43834
-1.29958
-0.00815735
16.0786
17.5549
-0.0569737
22.0684
-18.4019
-3.77903
6.86628
0.515449
76.4912
0.909923
56.6516
-13.915
-55.6823
-43.4017
35.4129
13.5572
-3.65166
-64.7169
-0.0168546
1.02338
11.4704
1.32874
46.2754
18.6251
-0.357804
70.1114
85.4174
-13.9421
75.1542
0.0699841
-24.8466
-8.20442
-43.1883
3.55782
0.538116
87.5123
99.964
-0.453762
0.687743
-0.0765056
19.3448
9.27242
11.904
16.6778
-10.7907
36.6652
-13.1905
7.89451
0.100641
17.1391
-21.6688
-0.0897236
23.8445
-0.512009
-7.8333
0.359354
-77.5527
-0.308795
36.141
-9.68551
-24.1788
-14.807
-4.43121
0.161953
-6.56906
0.589337
15.766
-1.01804
-20.7541
-17.7843
-0.06819
-9.02134
-51.4707
-7.34546
-9.55318
49.466
3.35688
18.8752
-6.67113
57.7023
38.8396
1.61132
31.3498
-15.4661
-72.0132
13.9776
-0.112169
-32.8053
12.6696
58.1618
-12.8861
10.3679
0.171665
0.00386719
0.710999
-7.74903
-0.0354073
0.450641
-56.7927
28.7512
23.6937
32.4195
-5.7597
13.9934
-48
22.7976
-21.8248
46.5679
-10.3606
10.9508
-4.28816
0.563948
11.9322
10.2767
25.4256
-20.9084
-65.3509
25.0263
0.910312
2.07355
0.286747
-7.99598
5.95025
10.8603
-11.7597
3.48401
59.656
0.53651
-14.9364
-33.4219
13.2211
9.73578
10.3749
83.8986
63.3416
3.55151
-33.2016
-4.71407
27.6112
-10.0545
-12.7048
29.4399
-28.0753
0.172929
-45.9107
-23.2799
51.5625
