-8.28882
0.364867
0.196935
-15.7005
16.2033
5.10673
-0.774274
11.3965
-26.9091
-0.649947
1.59316
-36.9327
-35.0758
-48.1787
15.11
3.40685
18.3782
29.2378
-48.1952
2.08371
36.5807
-48.8003
-84.0091
-14.0075
17.7004
-62.4393
0.0324221
0.449978
-1.40425
63.0585
0.744891
-43.7247
61.1131
0.849115
81.0233
8.55023
-5.32101
9.4467
52.0651
-53.1556
12.3617
77.3618
-13.1632
9.90017
-36.1785
-0.290313
0.794121
6.12186
13.2914
-5.70465
-1.99355
-9.75688
10.1567
38.6519
0.723861
-33.0917
-10.6843
-3.85333
-61.4541
0.745122
0.663347
5.38434
-4.84113
21.8627
-0.173973
-8.32934
11.012
0.591549
-20.9636
1.02007
1.40322
-44.9142
-19.942
7.2121
-20.5272
-5.86123
13.5605
-22.0347
-0.579164
4.64032
-8.57898
-51.7869
17.8049
0.230393
44.5281
-22.6598
60.2683
-18.2283
-0.0860853
-0.0689107
-2.23165
-0.143352
71.2385
6.89038
0.304879
14.3256
19.2799
0.382586
-0.360333
-0.673892
15.6533
-4.73207
11.9838
-4.40259
0.0715068
-7.12242
10.929
-28.8011
-8.23432
-20.8401
-5.92145
-58.8839
2.74244
11.0015
-41.8852
-9.1207
1.02464
0.381221
-6.4325
0.332005
24.7045
-72.2797
-41.0758
5.48093
-0.0291807
81.4464
14.7624
57.6386
6.025
-20.7959
39.3831
-34.6471
34.546
-52.6298
7.88675
-22.3241
0.90538
-9.21763
-35.0531
60.1917
69.8833
-68.837
3.90333
0.0659852
13.7705
34.4856
18.3125
-18.6731
-5.06585
-16.1298
4.31215
-1.30466
-46.8775
0.250381
69.2208
-5.57737
0.344696
69.8467
-0.167722
-45.7416
41.4898
6.4364
46.6487
4.60219
7.72261
-4.29388
0.480021
-41.4125
-13.8715
-42.7235
-0.33449
54.0497
61.2388
-16.9845
-21.8739
95.5928
58.9825
-28.0801
-0.400421
-1.99368
-17.2663
-0.453706
-69.419
-14.012
-8.7053
-6.49402
-35.2646
-60.0281
-7.80309
31.0713
-4.81585
-0.429099
-11.0102
-16.3329
-9.11394
-6.52139
-42.1592
0.535701
7.5649
-12.491
0.241979
-11.1147
8.87376
1.27596
-20.942
-8.274
7.77519
35.3332
-11.2664
-42.6819
0.830132
-6.11218
-20.4584
-21.7082
29.442
-3.68183
-1.01074
-20.2803
22.545
2.13346
8.62341
34.0219
-12.599
6.8711
-2.86054
0.958548
-5.29683
-0.0286636
-18.9825
1.19508
-0.989224
-0.372881
44.1679
45.4446
-0.314728
-0.213263
-3.04318
57.2711
-0.197865
-0.49726
9.04165
-23.6419
-16.7373
0.804557
62.5202
-37.5971
48.6323
-6.32534
-1.7295
25.5713
-7.64335
-30.2548
-16.7856
0.367966
-21.1053
-62.1221
0.615523
-25.9097
-19.0004
1.42534
60.4468
-4.77886
-7.75
-50.1187
25.0652
31.9274
0.186156
0.253137
-0.624499
-6.65369
-39.5233
12.7368
3.18794
19.3426
-30.778
6.00861
-29.7071
61.3579
0.235777
53.1957
1.30422
-17.5265
0.225712
-20.4515
-0.588544
-83.1829
86.7334
-0.200351
-2.12601
2.71527
11.184
-9.92087
-8.02545
-49.993
33.1884
-2.40899
-2.23429
68.6477
-10.301
0.0976789
-0.240408
-0.851952
-11.1934
0.764746
-0.0442737
2.79854
0.888248
35.4663
-30.5144
0.657076
0.594493
-25.2726
-13.4142
-59.0329
-55.6848
-43.3353
-17.3969
-40.5198
-38.1013
2.68104
1.98434
51.6927
65.0609
0.271548
-0.336092
54.3054
-20.4419
-1.14955
-53.1518
-16.2866
-83.3395
-7.48336
-42.9623
39.8706
-31.3565
48.6596
-20.5332
50.4224
20.213
81.0031
-0.0239922
-2.3167
-0.32785
-0.0849157
-12.3566
50.0551
60.9583
-5.25902
-0.230193
-0.108278
-14.7983
12.4826
-6.80948
4.79654
64.2921
-3.63522
4.68036
8.50244
-16.4551
16.4366
2.45939
-14.5155
17.1183
-8.73971
25.4399
15.5219
-16.8852
-5.2845
0.835264
-22.7978
-5.14661
-0.458069
-39.5749
-3.20742
28.9847
-40.972
-99.8078
30.7812
35.786
18.6505
12.8409
-3.36514
-7.28539
-27.6645
24.0297
58.1171
15.6824
-9.81926
6.57665
8.43959
55.5035
0.702921
84.242
5.16876
6.96451
6.67309
37.6856
-17.2696
-8.4504
7.65714
64.1683
-46.6511
47.1408
4.78131
-12.0177
-4.44742
-0.518661
-9.6299
30.0189
-9.56671
-0.278435
-26.4034
-23.4265
-0.498333
-8.15163
-29.794
1.73959
42.3919
-26.0279
-11.5544
-37.6399
0.397167
60.4904
32.3971
-44.0849
37.1771
68.6617
26.7511
-38.8575
-1.08778
43.7543
-25.8546
18.1153
-5.10862
56.019
1.1808
-66.5638
-1.16484
67.0832
6.23246
3.27195
-69.6973
-19.8422
18.0139
-73.3267
42.8106
6.73574
15.1362
-47.9962
3.55469
8.66843
0.646662
3.68584
40.5849
-5.22872
22.2315
-1.54078
18.4211
60.024
1.79141
0.28842
-5.36384
9.76945
31.901
6.78375
8.35021
6.85732
0.223018
13.7328
-21.4084
-3.80191
-9.26402
-11.6469
65.9375
-66.6529
-17.8746
5.96668
-33.8822
10.2449
-0.227317
-31.6741
-16.307
-41.1566
-0.0628482
-28.1062
32.467
5.14593
75.2222
-32.1403
9.50303
23.8834
28.9789
13.4791
-16.2517
-0.355849
45.7082
-12.0227
-56.8724
-42.5596
1.81156
33.4417
-1.06325
6.31999
-36.7182
45.3931
18.8789
29.9371
-25.5297
-76.1948
0.333966
37.9255
29.8549
-10.8687
-2.08546
-10.8882
34.0257
2.83569
6.97068
0.300922
46.9521
46.0998
21.4241
-26.5435
12.5375
0.245675
2.39278
6.82649
0.342709
84.7831
-5.10545
-4.62028
30.9733
-8.37978
-4.79211
39.416
-0.259467
52.6965
-49.7963
-18.548
0.0757093
72.0079
-8.98018
-14.4003
0.455436
-0.350473
-0.645846
-5.7242
52.9484
5.28677
-2.5418
-1.42376
0.645169
-0.0098
7.92628
-8.66915
-7.07412
16.3857
-3.82633
9.93104
-33.0621
-10.4749
40.6827
26.1827
24.6223
58.0264
-8.75703
-12.4266
-13.2977
101.252
-8.60402
54.7508
-27.4776
-58.1278
-12.0478
0.206584
-2.17157
40.54
-2.00397
-23.6473
43.2556
-7.65726
16.5652
-0.259724
-16.1937
52.7782
-26.5979
17.5109
30.0319
-4.36894
-11.2429
-16.0698
0.217417
-0.119891
68.573
-13.6626
0.86668
-14.2921
-15.9295
-10.2858
0.229421
-21.6168
0.241757
59.1508
-16.8475
-2.08982
39.2724
74.5321
39.7989
-6.40002
-0.523145
-28.7069
-8.15326
-0.112104
0.314574
16.3639
60.2162
-40.8763
-8.8302
-0.217133
33.8948
-29.1534
13.7473
-22.5661
-24.7571
21.6027
0.128386
5.92172
-0.226831
-17.8306
5.28736
0.0345992
-56.1753
60.8086
39.2992
-0.489326
-35.3387
76.1912
2.26269
36.7093
-1.57981
0.400251
27.1996
21.8926
-25.9962
27.926
12.3314
9.00902
-24.2144
-67.9042
-34.3626
1.93992
89.2812
-8.02785
-5.11848
6.82425
29.5566
-2.85986
39.8591
69.7827
0.0822535
-1.32927
-80.9029
-13.021
7.27996
-9.85837
10.9349
-8.26684
-0.245165
-17.3079
95.8236
-29.4887
15.3839
0.478172
-8.64751
85.5922
71.766
42.9199
-5.90452
-6.73416
0.190927
3.53244
0.0484831
-19.3736
-6.82749
25.7167
-72.7926
-25.346
15.3798
-56.2178
2.44479
-0.0762173
44.9426
7.03461
47.354
-64.2595
68.9413
-6.81094
-8.88904
16.9241
-44.3338
-25.4365
-5.15104
11.0944
1.4076
-4.84389
-6.06133
-5.0407
-0.648195
41.5228
-31.0397
-3.58236
32.3667
10.209
-11.8197
-7.99162
-6.63072
1.81908
32.5479
-2.27014
-99.9807
-27.2163
-2.41327
-7.27869
-79.35
10.7667
-7.25182
-9.11583
-11.9007
9.00214
-13.3811
6.31428
-2.9975
-27.4069
-59.706
83.2605
-76.8793
-0.714686
0.172314
30.3014
24.6196
-9.24107
1.1171
-4.70423
-10.2386
-5.69103
-34.5369
-25.6604
-10.5361
13.0472
-3.72261
-7.14995
53.3234
11.6901
62.714
-0.756126
-9.06614
-61.9264
-0.582862
-1.57911
11.3691
60.3901
0.256297
-0.109521
5.23034
56.1406
-11.5078
-18.8679
90.855
6.25255
-13.3546
-9.35357
-4.08517
-19.9037
0.510974
-0.501617
-19.7215
-0.198605
6.65477
0.100718
-30.7272
-5.59551
31.007
-28.2102
-22.1852
-35.857
49.391
-11.0198
-58.8186
25.2632
9.4132
1.58382
-63.0246
49.1142
3.85679
-0.97375
45.5232
36.4506
2.54496
79.1327
-6.21649
-34.8209
-31.0729
-2.46995
35.9197
13.2773
52.3905
-26.4941
-11.8127
-11.1293
-42.8237
1.78584
-15.8752
8.05681
-8.21186
-4.58246
48.6525
3.77186
-19.4675
-23.4026
82.3672
42.919
-19.6408
-15.2355
0.228854
-16.7591
-27.0455
-5.51882
-12.8755
42.3421
6.70638
-1.91246
-42.3512
0.154095
9.47863
1.33659
1.62455
0.130326
-25.4375
-58.3087
-40.1105
11.2809
-0.264917
-37.276
-9.10507
74.0015
-11.0414
-27.1073
-0.141768
0.185185
2.78652
0.513483
-1.29952
-6.10722
20.6439
37.111
0.0164919
21.1942
-9.1411
12.785
7.0393
0.529228
49.3272
0.678517
40.0708
-13.1406
-51.8496
8.27005
41.4718
-0.257301
9.07689
-54.3612
-4.42516
0.968999
0.152894
1.55121
57.4726
-2.55808
-0.371739
20.3146
77.3804
-21.6472
57.0307
0.314318
-30.9198
-5.71485
0.937891
0.816297
0.496552
78.8558
94.0332
-0.294512
9.29942
-0.614047
3.39044
5.91855
-1.18801
-3.68605
-18.1418
46.7945
-19.5886
14.2951
0.0791433
12.393
-46.6249
7.40336
26.7494
-0.219978
-0.0301566
-0.145808
-64.4105
-0.148997
-9.01678
-19.3806
-16.795
-5.87163
-5.73441
-18.7838
-6.17972
0.280622
17.647
6.72407
-13.5308
-20.8666
0.116611
-24.2356
-76.33
-2.48032
-26.9876
60.7577
5.11455
46.5119
-3.55696
82.2759
38.8516
1.56025
15.3793
0.12539
-77.0556
6.43071
-0.279543
-32.8053
16.3345
56.8598
-14.9613
9.19908
-0.0716244
0.937379
-1.57546
-6.35724
0.0357025
4.30274
-62.518
-31.6411
60.5803
46.4247
-2.28273
14.4034
-50.3372
22.1623
-18.9288
53.9145
-11.6606
7.03923
0.711163
0.740758
7.6304
11.2893
30.6383
9.22369
-54.521
39.6057
0.735561
1.74591
-0.137805
-8.90464
5.90093
11.1275
-19.9189
3.29104
53.9832
0.875826
25.3754
-40.4476
-29.3626
9.69612
-0.851907
83.4957
25.9334
-1.33819
-23.7866
-6.77545
31.836
0.272131
0.267537
29.6654
-29.7013
0.162319
-22.1157
-20.0625
26.5209
