69.098
0.679261
-0.857476
2.15593
51.0607
4.60746
-0.680877
-1.27633
5.05624
-1.05635
0.612702
-80.4131
43.591
-90.625
2.5711
65.9588
5.07339
4.47601
40.5517
-0.743311
-82.5559
-60.0706
2.05229
-6.03636
7.59186
-91.7516
0.569636
0.512598
-67.2317
78.1171
0.970074
-18.0179
24.0319
0.472611
69.3739
2.10998
0.412099
77.4438
-58.3019
-93.3455
2.72089
-6.64187
-2.21675
4.72913
-96.9042
0.198289
-80.955
-75.2708
-57.5247
79.4682
7.75387
-1.29674
5.1163
-81.9195
-0.00379598
-86.3677
-3.03836
59.4758
-27.1737
0.618886
84.8087
0.281771
76.6519
-67.1053
-2.0413
-78.2112
74.6906
0.576736
-89.4768
0.992685
82.7121
-66.2586
89.2777
-1.15025
-7.96494
-27.4929
7.21881
-6.74011
-0.414713
1.44852
-5.953
50.1735
7.61947
0.129228
84.2988
-83.2674
-64.9059
-80.5329
0.357114
0.677839
-70.3326
0.822399
89.6436
1.34945
-2.07078
12.4885
-69.6912
2.71238
-75.218
0.725889
2.98343
-80.5601
-0.461257
49.646
-0.065507
-1.913
-65.8109
44.1404
-2.50651
54.3732
-73.0788
-87.4418
59.059
5.31283
-11.0615
-3.62757
1.02821
0.336628
-66.4384
0.164804
4.13545
61.4667
59.7905
-0.446121
0.0599035
68.4729
5.68654
85.0683
0.0684765
-6.60339
85.1707
75.6986
87.7406
-83.6093
2.76381
77.6244
0.935337
61.7913
69.3504
91.3778
-77.5054
-82.97
1.06251
-0.0559569
83.7779
76.1943
0.835427
-0.0913447
-2.93791
-8.48363
39.3014
-11.4557
-8.64317
-3.92903
93.1708
-0.507133
1.6322
93.6783
-1.63407
48.5533
54.7943
2.33838
-18.1017
-54.5422
2.68305
81.3345
1.32684
-56.6281
-3.47663
64.0624
2.03075
-91.4762
-74.1934
-0.912165
-5.96964
-56.6507
-35.02
-43.069
0.468952
-5.49788
69.4909
-0.311654
36.1245
-0.419436
-1.21654
-74.0172
-9.07955
-75.0109
-4.35082
79.7986
56.2597
-0.209462
-0.700769
-6.76344
-1.66249
-68.1279
-86.2094
-1.30527
-69.1471
-4.11004
1.19156
0.0962125
80.1354
-68.2985
-84.3546
45.2277
82.9264
33.8666
-1.94053
-73.7241
0.981252
-3.85741
-9.20244
-83.613
-62.5889
-1.44671
-0.202615
-2.09534
5.75543
1.22399
-72.3059
71.8569
77.5925
-82.1241
0.263761
2.152
67.6915
0.070036
-17.1962
2.2251
-1.25476
0.0954286
83.3296
95.4309
1.51049
-1.87732
-3.85157
86.6486
-0.589292
-0.0815985
86.4014
-59.7278
-2.93364
-1.99556
83.2078
-73.9505
76.8992
-6.14
4.7055
20.5447
-4.21317
26.554
-3.91902
0.215216
0.0794504
-83.7911
-0.958031
-4.61696
-79.7733
-80.3649
90.3811
-3.01345
-75.9247
-77.2177
11.0643
7.77256
-0.267616
2.25068
-1.46947
0.966499
72.6519
5.80157
-51.5517
6.23078
-75.0163
-0.21091
50.2695
-19.4471
0.324635
79.687
-0.327422
-1.68861
-0.925859
-84.177
0.872242
-89.3528
94.8741
2.41277
2.71108
0.178569
87.0791
-0.909895
-1.90066
-71.0439
5.0455
-0.670503
1.3503
-41.4127
0.328471
1.06666
-0.168577
-1.79361
0.454292
0.126402
-0.730315
49.9675
0.828358
26.616
82
-0.120387
13.428
50.3375
-11.1533
-86.9311
-80.3608
84.4847
82.302
74.6372
-5.64681
0.164392
1.8624
73.5627
87.9726
1.18256
0.0367566
-65.0838
-0.626116
-0.232629
-81.5469
47.4652
37.0265
62.2815
45.5042
75.9825
-81.2065
86.5233
-78.6902
50.6935
0.764883
96.7771
-36.1592
-78.519
-0.253918
0.821763
-25.5638
80.8455
-55.2374
0.763732
0.319628
0.613158
-1.63781
-0.191292
6.86399
-3.26193
-66.0933
0.211589
-52.6679
0.00706961
-2.76022
4.61954
-54.8826
-73.8264
3.86367
-1.32757
-86.4715
80.6896
-81.1386
1.90865
2.67435
68.1831
-9.11899
-0.799146
-18.2623
-68.6915
33.3862
65.4964
-100.995
-53.3932
91.9327
70.8355
57.583
73.3759
-0.90849
-35.7483
-64.1265
-61.9997
-64.4085
-3.9994
2.57135
86.4766
-51.9865
0.828786
87.2154
2.18856
-2.0809
3.46651
71.5837
-7.41557
0.668855
2.84488
97.2649
86.0681
-16.2222
-54.1378
-3.69699
-1.41472
1.03068
18.7902
-90.3008
63.043
-0.0825119
-18.615
-76.2875
-0.674816
-5.52873
48.3599
-1.62815
88.6683
-3.83164
-3.77596
-84.4703
0.213156
-45.7522
-37.673
-81.759
14.9695
-64.5384
4.94761
-85.9874
0.421996
-57.5531
-83.8899
4.12422
0.0724103
92.6109
-0.975767
-81.5835
-0.682913
82.4283
0.641834
1.8799
-84.2068
68.7927
81.225
-92.0789
-51.1014
-86.2259
56.421
-84.371
-52.7307
4.49326
-4.12809
-0.316889
88.997
-0.618275
-82.6861
-2.35951
1.0335
69.4218
0.607991
0.177369
28.5817
45.2546
-71.6279
0.145094
3.10178
0.144638
-1.04696
6.9283
-47.9125
-4.14502
46.8406
76.1408
-78.4653
59.1317
-79.5091
1.12724
67.7295
66.8508
-0.122708
80.026
-3.12872
-94.59
-0.039783
54.3135
70.3076
0.122375
89.2567
-83.4566
3.40938
17.6068
88.4713
1.85367
-67.1988
-0.470575
-70.4589
53.7431
-82.8112
-78.7931
-0.414624
-74.0189
-1.0746
2.46318
51.4487
90.4946
-1.50827
6.99182
-2.76529
30.2789
0.584937
72.9806
-80.8571
-3.00947
-84.5953
-4.81582
74.9901
3.32066
1.18675
0.894314
59.1806
80.1494
86.2371
12.1302
57.1624
1.27376
-0.400454
2.36469
2.39378
-22.0276
0.880648
-0.901488
77.8735
0.619682
-58.3753
77.6122
0.484976
86.2263
-73.0694
-5.94988
-2.02278
92.7514
85.3556
-4.00378
-1.14551
-0.798528
0.221749
-2.62731
77.0654
0.952746
-4.69853
-45.4672
2.52183
2.99902
-1.24847
35.6369
-2.27698
3.54793
9.82623
-59.3223
53.3151
90.5758
67.7337
73.9067
1.10833
94.469
-83.1954
-4.61512
-0.998468
-63.995
-81.8056
75.3642
-34.4238
46.6782
-1.71621
0.212016
1.99637
89.515
-82.8075
-86.7762
15.7375
-41.9293
73.9319
-0.283141
-4.31497
89.2114
-19.6406
9.03475
3.91412
-80.1086
-82.4541
62.731
1.66128
-0.194825
92.3739
79.406
0.780783
5.89993
55.4801
-9.55256
1.8168
82.6968
0.271216
52.2723
28.1142
8.21534
90.9776
95.6929
-75.6683
-1.28848
1.4989
-15.0315
-0.985671
-0.223812
-0.468795
50.7037
82.0805
-84.3471
-4.26038
-2.37139
-68.722
-8.50461
1.59064
-3.39039
-8.00969
-76.6816
-0.421087
1.53824
-0.932477
-73.6134
5.1325
-0.0641984
-84.4204
78.778
67.8853
0.362034
-2.95709
-15.3295
-63.0941
-80.2739
-95.3183
0.118168
7.55433
-2.55038
-79.5016
7.52831
-77.3586
2.14172
56.133
-90.6243
16.1443
-77.4613
87.6642
-3.20977
-0.949049
2.35409
37.0325
-1.68329
87.1734
-65.6357
0.592391
0.0923103
51.5064
-5.3336
2.95698
-3.34132
-0.324985
-3.26799
-0.139511
-5.70713
90.1438
-42.8782
-42.8589
0.988204
-3.24068
73.4652
89.6098
-81.6788
66.0893
-1.99696
-2.85167
1.24814
-0.633449
87.2969
-0.0195262
2.66594
60.8129
86.1149
79.1541
46.6172
0.774614
-0.634857
60.0651
2.04688
88.5164
-82.3905
-72.5444
-10.9075
-2.84799
7.93892
-10.5232
-4.07688
2.88316
0.597266
1.88275
2.12825
0.843618
2.36978
0.449359
88.8298
57.7536
53.2528
15.8305
-72.7999
-1.8372
1.08115
-0.296019
-0.348813
76.468
-6.66463
-98.9393
-93.108
0.393898
0.00095516
-34.9795
2.41778
-0.174269
-1.42862
-1.56831
55.8047
-78.5397
74.7113
-0.66991
-12.7771
-67.1248
74.7183
19.4343
-77.9948
-1.42086
6.72133
62.9595
-4.98783
-2.0596
-0.659277
-73.0954
-1.73325
-81.4005
-16.8807
-1.1344
-0.946963
-3.79407
0.0844939
-53.2381
4.11909
78.5798
-2.91824
-2.60669
69.8754
-1.41718
-73.8513
0.821168
77.4732
0.709467
0.875296
2.0223
80.0553
80.7078
-13.0247
-3.95943
-86.5526
40.2107
-0.401619
1.4394
46.7344
0.718959
-0.832156
-6.80083
-0.0629085
3.56421
0.695843
-13.1218
0.57989
72.5029
-3.75188
46.3569
-71.1338
66.2251
-67.1537
-44.6397
-42.7598
1.859
-0.347571
55.5007
51.4574
-52.0747
0.435287
74.5457
45.7876
-72.4248
76.9711
-0.200246
44.4343
36.1715
51.7596
78.4425
3.54842
-52.0519
-6.9669
-6.0908
-76.3513
69.2761
0.890411
-3.34064
0.991006
-1.90884
0.637571
85.3153
0.939148
-4.58171
-43.4622
94.6994
89.7755
-3.72523
-9.2259
-1.53352
0.114727
36.6467
16.6892
-2.6392
86.3728
2.05984
2.50034
-68.6943
0.133954
-2.22485
0.35783
1.11379
-0.412483
-65.5722
-90.6087
-70.6719
-66.7113
-0.535397
56.2137
-0.422022
79.4495
-1.89346
-14.5868
-1.10345
-1.01728
0.750231
-3.05883
-1.92789
73.1459
2.67449
-53.1254
-1.45738
79.656
-4.41515
-1.54411
2.24361
0.560968
92.3094
0.424004
-60.445
-3.84961
-14.1052
17.0606
66.0797
2.89233
-2.00785
6.7062
0.00175023
1.3279
1.21318
-0.65949
-36.0228
80.2627
-13.9747
84.9588
96.0596
-4.43928
94.2412
0.135666
34.1875
-2.76399
-19.982
2.05713
0.254578
97.0903
100.935
0.0823395
0.355929
-0.279462
76.6307
2.91804
-77.1055
4.17287
86.7521
-54.1563
77.4477
2.00145
-0.89551
-55.9274
-86.6958
0.0967358
21.5975
0.339987
-3.37289
2.43389
-95.0108
-0.0857533
-79.4225
-7.70284
70.4752
-10.7786
-32.143
-0.781396
-2.26404
0.633954
9.87543
-0.995227
-17.9757
-4.67517
-0.177999
-48.5867
-94.2685
84.0124
-2.81393
-74.3011
1.46537
86.6425
-1.66744
95.7555
85.2433
2.1353
-73.3737
-11.3611
-91.813
2.98405
-0.39488
-1.55684
-74.6497
15.8902
-8.91804
2.31909
1.00472
0.845994
-30.5214
-1.25929
1.93196
1.69609
80.5499
76.2303
-65.3029
-79.8855
-2.79028
5.24908
-91.8359
-64.1805
-6.13591
65.0384
-2.51493
2.25769
-1.89804
1.54491
4.55735
3.10308
-63.5026
-70.8472
38.7945
65.796
-0.54344
1.74905
0.326882
-3.53289
2.83247
5.96893
-66.5104
0.46727
90.9768
0.213652
73.8355
-6.40975
76.3066
4.87014
-36.8027
94.8762
70.6615
2.45929
-73.8803
-2.17917
78.6815
-6.97416
-2.22299
-14.041
-8.26159
-0.451575
67.3859
-85.1985
-68.7876
