62.3468
0.64305
-1.8886
2.5034
82.0742
2.5638
-0.6478
-0.794
1.6356
-1.166
3.487
-81.4354
34.5306
-82.5554
4.0114
72.6816
3.7652
3.5132
50.2149
-0.8538
-72.2976
-75.5516
38.429
-4.199
3.42404
-85.3912
0.6672
0.684898
-70.1168
89.6354
1.03545
62.457
-55.3132
0.477
86.1718
2.6018
0.458
67.1052
-51.9674
-86.3674
2.5456
-58.96
-2.1668
2.325
-94.1006
0.23126
-73.4538
-70.5963
-63.451
75.5188
2.9252
-3.0358
3.1906
-68.0547
0.0328
-78.6868
-4.7896
65.4714
-77.2214
0.6004
78.0948
0.9532
67.0166
-59.7164
-2.0179
-79.754
72.484
1.2324
-77.0824
0.9532
60.4368
-87.1162
84.4438
-0.0994
-5.4042
-55.1854
3.41711
-2.9324
-0.450624
1.5558
-0.722
64.6452
5.63255
0.1304
82.4756
-69.0806
-63.5828
-67.5484
0.3814
0.6252
-46.4452
0.7348
91.1632
0.830748
-1.8648
4.5108
-74.837
3.04673
-64.376
0.699934
1.8266
-73.003
-1.8914
64.3922
-1.30429
0.0608
-59.5278
57.0805
-2.2814
63.9296
-63.1886
-83.9238
66.5214
4.144
-6.821
-2.37318
1.0326
0.429
-74.8368
0.2034
2.6136
47.9252
70.1374
-0.5408
0.0906
89.119
2.3774
89.1024
0.2758
-0.8066
77.5326
76.2094
79.8629
-79.1676
2.7046
71.9538
0.8888
58.4056
68.9426
90.6546
-66.2782
-82.3514
-1.0572
-1.113
76.0042
76.3398
-0.1184
0.734
-1.4064
-6.2482
71.9292
-1.4136
52.4884
-2.4718
91.1436
-1.631
1.52687
96.1544
-1.5452
66.4176
63.9936
1.6682
-43.4876
-69.3644
5.3378
72.1865
1.7982
-65.8924
-2.9742
50.5288
-0.2362
-79.7764
-65.297
-2.6146
-4.3952
-47.2866
-59.2488
-71.3971
0.8172
-5.4014
71.1808
-0.3414
53.303
-1.4178
-2.79031
-72.9834
-8.6752
-70.4482
-2.6928
79.7656
65.709
-0.1708
-0.581
-3.479
-1.9028
-69.1226
-79.6528
-1.0798
-67.4226
-0.687143
1.0518
-0.2232
75.9868
-68.149
-80.478
75.6314
71.0452
66.0718
-2.504
-61.1508
3.3446
-1.6412
-4.24531
-76.9182
-58.5894
-0.5336
-0.212
2.2556
2.5904
0.322096
-66.1828
72.6538
81.632
-74.5428
-0.0576
2.123
66.6598
0.2
-4.6614
2.6434
-1.2552
0.051
80.6966
95.0262
1.40967
-1.5208
-4.6586
88.6546
-0.578
-0.031
76.3934
-59.8336
-5.5974
-1.6572
92.9464
-52.8587
79.3932
-8.1178
1.6954
6.7912
-3.7894
61.7496
-3.303
0.2082
-1.9092
-83.4032
-0.547
-4.4162
-78.2098
-64.8116
79.7848
-3.041
-63.2206
-85.5882
5.8802
6.3738
-0.3114
1.3208
-1.341
0.9888
67.0736
2.7944
-60.9733
3.2306
-86.4539
1.9552
54.9494
-51.9786
0.303
79.7762
-1.5698
-1.072
-0.8108
-79.003
1.3048
-88.068
92.865
1.5856
1.4004
1.4066
80.3218
0.6046
-2.19965
-78.1854
3.8182
0.0188
1.3238
-41.4852
1.0634
1.0456
-0.06875
-2.3478
5.93051
0.0110204
-0.7464
78.3448
1.4084
-46.4052
70.7898
1.6546
1.7882
66.9098
-4.7242
-84.9222
-84.2902
72.0242
70.4904
74.6984
-4.0778
-0.419942
-0.84628
80.0172
89.9108
1.4686
0.1938
-66.2854
-0.8092
2.132
-87.9602
50.9356
68.9156
68.4286
73.2542
84.1676
-76.8378
79.065
-72.7351
73.5916
2.0124
92.3346
-77.7588
-68.6998
-0.2392
0.8276
-77.772
80.6543
-68.9248
4.0194
0.236837
0.6562
-2.3782
-0.1244
3.2116
-0.9282
-66.378
-1.235
-68.6082
-0.045
-5.0212
4.0366
-70.4748
-80.944
3.4568
-1.9636
-72.8292
73.2646
-85.6546
1.842
2.4184
64.3704
-5.9898
-0.760384
62.5594
-61.3158
76.5136
61.5669
-96.9874
-56.0349
80.2858
71.0731
88.3454
69.705
-0.9808
-81.0464
-55.768
-68.5206
-68.8256
-1.5288
1.7636
76.8238
-62.8616
0.8936
84.0274
2.8608
3.118
0.525
84.987
-4.3104
2.26083
3.3566
77.8924
72.2128
-71.8774
-64.3058
-3.9758
1.7278
1.1078
65.3578
-85.2142
64.5798
-1.0252
-3.61351
-66.9834
-0.6728
-1.8954
61.1564
-1.184
85.19
-5.0512
-1.581
-73.0436
0.2082
-47.1792
-60.2506
-79.063
7.0388
-48.7504
3.9212
-83.9294
0.4322
-47.937
-65.6654
1.7378
0.5376
87.8
-0.9056
-72.0462
-0.4982
90.7186
1.3556
0.968163
-84.9834
77.3647
80.2232
-90.8154
-49.9082
-81.0022
80.329
-87.6794
-74.3996
2.6502
-1.7654
-0.2996
84.5876
-1.728
-76.9228
-0.7172
0.814
92.4036
0.6452
0.4312
75.8346
83.0362
-59.865
0.0738
-0.4238
0.6536
-1.313
1.8274
-62.6318
-0.0078
36.2884
68.938
-62.5994
43.665
-77.5014
2.6158
64.4494
76.1064
-0.0236
54.8644
-4.2052
-87.906
0.005
57.172
80.5774
1.3406
88.1298
-74.0494
2.2424
9.63918
83.5692
2.631
-71.356
-0.7442
-50.3846
62.7188
-88.8332
-72.5804
1.3344
-63.5595
-1.1252
1.9064
41.4212
86.482
-60.9498
7.2388
-4.245
46.914
0.5584
88.054
-71.4308
-2.9088
-86.4366
-2.7966
80.1939
2.5962
1.153
1.0518
82.098
78.4022
79.8164
64.776
66.0746
1.2056
0.0354
2.35284
2.484
-50.6432
1.9936
-1.6848
72.2044
1.09218
-71.8498
72.7742
0.858
75.4231
-91.123
-4.8852
-1.863
89.8406
85.0934
-5.3734
-0.2426
0.7962
0.2208
-3.1076
87.7514
-0.8068
-1.5842
-58.3736
2.61367
-0.764342
0.5716
65.5548
-2.3994
4.6666
7.51143
-73.1092
54.4076
83.914
67.9832
77.473
-0.205714
95.5462
-75.9286
-5.346
2.3708
-55.4666
-72.747
70.5376
-74.6944
53.3508
-2.0032
0.2422
-1.1806
83.1512
-83.7454
-78.3322
-59.0908
-78.268
70.7808
-0.294082
-3.067
92.4428
-6.2052
9.0384
4.7352
-74.7698
-74.7197
64.5062
1.3812
-0.0910204
92.6366
62.0334
0.66749
62.0196
69.1252
-5.6812
1.02102
75.2628
0.5434
88.404
55.497
2.7426
86.722
86.7431
-61.0384
-0.8464
1.5678
-7.0194
-0.0576
-0.2172
-0.4214
63.3464
74.8316
-81.769
-3.953
-1.8306
-50.924
-5.6026
1.5832
-4.5622
-5.3416
-64.6096
-0.027
1.9244
-1.165
-71.4154
-0.1254
-0.0488
-87.6878
83.8722
80.599
0.2936
58.3744
-51.0404
-59.4172
-60.3838
-79.8036
-1.899
2.71469
-4.7302
-70.972
7.2226
-79.7
1.592
51.4748
-85.07
69.4104
-72.183
89.8192
-0.2046
-0.8014
2.3616
79.738
-1.1402
74.8836
-60.6874
0.6078
-0.5978
52.8344
-0.391041
0.4542
-3.8512
-0.209592
-3.1342
-0.0588
-3.69298
83.8156
-71.7962
-69.8128
1.11571
-2.8248
-42.912
92.2582
-78.677
66.022
-1.8816
-2.0746
2.51772
1.19038
79.303
0.0846
2.5748
69.4541
78.639
64.4244
58.0574
-2.0622
0.5632
87.1126
3.2614
78.7122
-79.7268
-53.3602
-4.9806
-4.77833
4.3101
-2.7984
-2.265
4.8252
0.81264
1.885
-0.115
1.5212
0.4646
0.746
89.5885
53.1968
76.3594
7.1402
-59.8084
-6.7866
2.0416
-0.2716
0.6016
74.1262
-4.46271
-98.9705
-88.4718
1.1142
-0.1836
64.8258
1.8198
-0.617504
-1.1944
-1.61954
80.4744
-80.8666
65.0928
-1.175
-7.4766
-77.3852
87.8042
39.2802
-91.3194
-1.3274
13.2053
82.4394
-4.4672
-1.27842
-0.4324
-78.2078
-2.7272
-79.1652
-74.0474
3.136
-1.1994
-2.763
-1.6742
-48.8208
5.3746
71.5922
-2.7576
-2.059
69.1366
-1.5258
-68.0094
1.871
85.1068
0.667
-0.9302
2.7504
88.7966
68.1172
-4.8566
-49.6516
-81.6062
69.237
-0.6382
1.71469
55.4892
0.469134
-0.744
-3.07367
-0.0536
3.1102
0.621224
-9.02
0.401
80.6736
-5.78583
39.3994
-75.332
79.0576
-66.7059
52.914
-56.0216
2.2682
3.5282
60.116
84.0716
-58.3326
0.3938
75.0996
77.28
-76.9548
86.678
-0.1992
73.4804
62.819
80.5806
83.9982
3.45312
-50.7744
-4.6926
-1.71568
-68.9749
67.355
0.8556
-2.1976
-0.7166
-1.4006
0.5694
86.835
1.994
-2.8958
-71.712
80.342
84.9422
-5.8888
-2.4208
-1.6834
-0.6364
60.7388
2.726
-1.3134
79.9847
2.263
0.837551
-81.5304
1.4036
-2.438
0.323958
0.701
-0.4734
-84.0654
-85.17
-64.5582
-69.5748
-0.5062
50.1676
1.9556
75.8036
-3.0248
-7.5116
-0.9724
-0.964
2.0414
-1.5178
-2.49592
70.4092
2.0766
-77.0524
-1.3468
72.9566
-5.4394
-0.1296
1.8868
0.5762
82.5142
0.383
-72.611
-2.9024
-16.3076
49.4422
81.5266
2.6221
-1.6878
55.8118
-0.034
1.28
2.8708
-1.41
-51.2806
69.7092
-12.8584
91.2798
87.8972
-3.3842
91.2618
0.2804
69.844
0.1058
-7.48653
1.16333
0.2312
95.3228
101.226
-0.073
0.2586
1.4846
68.2058
2.9946
-66.9852
2.81
86.4054
-47.8658
66.0816
1.3292
-1.6722
-53.9786
-73.693
0.1106
4.90673
0.333
-2.8692
2.106
-95.2128
0.7834
-51.9946
-2.243
65.7722
-3.6314
-78.3942
-0.834
-2.4412
0.62
5.7699
-0.9072
-5.155
-3.119
-0.212
-60.433
-89.396
72.8734
-2.68402
-57.1762
1.547
83.302
-1.9749
92.2926
73.3768
2.10429
-60.0736
-0.527
-76.5116
2.756
-0.447
-2.52604
-64.1868
-45.6326
-2.01024
2.703
1.0584
0.886058
-58.5428
-1.3202
1.8612
1.56418
67.5294
72.8144
-64.0406
-55.6044
-2.3224
5.498
-76.511
-64.0356
-3.1404
79.4008
-2.2064
3.6568
-1.9234
1.4826
4.044
2.9796
-56.1724
-70.4804
42.3008
80.8916
-0.724
1.8974
0.3532
-1.3078
2.7134
2.71224
-70.8824
-0.6056
81.7294
0.0034
65.8308
-8.68338
84.5686
2.7584
-66.7326
90.8336
81.602
1.0238
-77.7996
-2.5148
78.227
-1.8468
-2.0816
-52.7484
-3.91846
-0.3958
52.794
-79.6092
-51.1612
