4.84474
0.0753846
-6.92533
8.91083
39.4307
6.22059
-0.501111
0.475385
8.65167
-0.456667
16.6508
-17.8658
-57.3848
-35.3321
10.5237
-7.87333
8.24667
15.22
-50.4146
0.000666667
-12.5587
-33.5633
-67.1017
-13.0633
17.9273
-46.5731
-0.497143
0.217778
6.93143
71.8494
0.441818
-6.46059
53.1327
1.03364
58.7853
6.17833
0.357059
-14.4986
33.2283
-45.2664
11.7733
43.1514
-5.61
10.3906
-59.623
0.2335
-23.01
-6.668
13.0894
-9.04455
5.85
-6.41929
6.69812
50.604
0.407059
-32.8993
-13.072
10.2121
-8.2875
0.46
21.4586
7.13286
0.311176
33.2987
-5.39148
-28.5414
7.04333
0.281333
8.42545
0.766
-4.34211
-53.6062
10.57
6.87538
-12.2561
37.4956
9.72091
-5.97105
-0.240556
5.66294
-0.1525
-12.2475
20.1413
0.08875
31.7162
-16.3706
20.1773
6.702
0.408
-0.158571
17.2217
0.465263
70.9812
5.31208
-7.08692
12.3325
8.42417
6.15833
5.82471
-0.324545
6.22647
-0.0592857
-5.55611
-5.44706
0.06875
-0.0507692
0.6555
-23.8073
-8.0175
-0.0355556
11.9182
-55.0772
-6.12938
13.3467
-27.9909
-7.70538
0.843
0.345
8.84727
0.428182
12.8213
-73.606
-36.0936
0.073
0.155833
40.555
13.5987
67.3822
0.676842
-12.1288
31.8506
-19.553
45.2511
-41.2129
8.09692
6.30267
0.847647
-4.211
11.7024
67.0753
54.8409
-42.5493
0.518571
0.159231
25.0981
37.0195
0.728
-0.151818
-6.18133
-16.9828
0.107143
-7.54286
-27.8217
-8.68417
69.2385
-8.57846
0.689231
85.9314
-0.111111
-41.4783
-12.095
5.16722
65.5918
5.922
12.7293
7.10267
0.550556
-10.9774
-9.10636
-31.7211
-0.595385
43.2257
54.1955
-14.61
-12.885
63.4331
33.364
-0.69
9.526
-21.3736
-16.47
-0.3885
-70.8636
-8.809
-4.84048
0.139286
-25.495
-6.83733
-6.85267
16.3233
5.86722
-0.350909
0.583077
-11.8435
-8.72
25.2675
-0.184
0.434706
6.28133
-7.24583
0.259286
-7.60385
14.11
-11.1933
-16.6317
7.95385
-7.49385
5.84389
-6.59667
11.2147
17.2292
-7.28
-12.9691
-20.7793
30.8106
-0.196842
-0.900769
5.52765
7.975
0.62405
-5.47667
13.3493
18.0336
-0.266154
0.77625
1.495
-30.2915
0.228462
-15.9706
8.48769
-0.96
-0.224737
49.7315
78.7393
-0.170833
-6.38875
-10.2365
45.4164
0.1275
-0.0329412
0.5625
11.1289
-14.0176
-5.54
75.2581
14.8676
41.3135
-16.3035
5.86
20.6773
-8.72682
-26.358
-10.6659
0.152143
-7.25769
-52.7582
0.8975
-16.0575
-35.3871
19.7214
17.195
-5.3225
5.98118
-53.8973
18.6445
19.2806
-0.566471
6.42444
-0.352941
0.488889
-14.02
9.47545
33.138
12.6587
-56.8386
9.38737
-44.1187
71.3764
0.096875
47.6116
-7.4275
-9.80091
0.601429
-15.9642
-0.131111
-62.6275
73.86
3.7287
7.14133
6.28687
9.27727
0.662
-6.0425
-15.6708
14.305
-0.0984615
0.742632
60.87
5.95812
0.236154
-0.602727
-0.966
-7.38917
0.52875
0.335333
45.637
0.350769
28.5733
-24.8125
6.27562
5.9
19.3595
-16.5183
-49.9564
-52.9406
-40.239
-34.6308
-8.02
-21.88
-0.065189
-5.19522
44.4033
77.7522
0.203889
0.211111
21.8493
0.178571
4.925
-64.6082
-26.2289
-45.1218
11.1994
-26.9609
43.1471
-25.7269
39.9806
17.2692
31.4995
16.27
77.4094
-8.975
25.2242
-0.397778
0.122
-0.63
24.7358
36.8191
12.0294
-0.564118
-0.0992857
-9.00182
0.172857
4.91565
-5.06722
13.5667
-7.6475
-0.455625
-10.7278
-11.0856
7.17438
-16.6522
-24.78
11.8559
-4.64526
8.11769
28.0994
-38.45
0.265
0.933846
-13.3613
-16.3006
-0.3725
-57.8392
11.7
33.3911
-6.05278
-84.1154
36.7535
32.886
17.7745
13.9886
6.43312
-5.092
-33.4847
22.9733
33.0642
-5.78875
-1.10263
5.68111
25.5769
49.7725
0.748
18.25
6.92267
7.53571
-0.07
27.5045
-13.1547
7.48429
8.61231
31.0625
-56.0589
27.6173
5.58471
-14.8931
0.333571
0.0552941
6.08278
13.7214
0.206111
0.326154
-15.4408
-19.1985
-0.138889
-6.94846
-5.42778
-6.74667
46.2262
-13.2137
-5.87294
-27.3433
0.316923
63.2375
42.8621
-31.2781
21.3586
66.982
14.3386
-53.4518
0.494706
53.3594
0.362941
6.726
-0.394286
53.7315
0.945
-12.0919
-1.28062
73.1339
6.642
0.634375
-66.3038
-9.509
16.9317
-68.6419
60.0193
-23.7154
9.34545
-59.5147
-0.0569231
6.454
-7.23071
-0.298462
29.698
-9.24
-0.425
-0.125556
9.23091
64.0882
4.96105
0.285
0.609167
30.5085
53.7108
5.26687
-0.576923
7.77923
0.0236364
5.91167
5.27611
-0.00266667
-27.6832
-14.0729
46.2677
-74.8356
-21.7564
7.03933
10.2147
-10.268
0.336154
-64.3871
-14.8643
-68.6305
-0.198824
-23.8976
-0.353
6.56867
57.2207
-6.70214
7.97
19.1314
27.6545
6.71312
-29.365
-0.474
55.9406
-0.0922222
-60.0707
-26.2279
8.17769
26.3533
-0.857333
6.96286
-32.3064
56.8638
36.1221
25.57
-14.4664
-52.9906
0.497059
45.7709
39.966
-7.316
-12.3413
-6.452
50.199
4.7055
8.22
0.0868182
37.8088
31.0406
23.4238
-19.91
-12.2913
-0.258462
-0.310556
5.73471
7.81769
91.9969
6.73429
-5.46
22.4522
6.08
0.0221429
17.9441
-0.355714
7.64077
-67.0033
-22.3469
-7.82583
45.6309
34.1208
-14.845
0.495625
5.78188
-0.321176
-5.89368
56.9493
0.101429
-5.66882
-0.309524
0.59
-7.16385
7.03692
-13.604
-5.90437
17.9855
23.2723
-7.67923
-22.6144
0.611111
5.61941
31.6644
-0.47
88.3371
0.3575
-14.595
6.89933
101.042
-7.68667
22.5867
-33.3156
-40.3094
-4.558
0.299444
0.133478
36.1229
-38.2792
-1.19091
42.71
-8.025
20.8558
0.002
-13.6536
67.0867
-21.4414
16.4668
22.3889
-0.427692
-7.16357
-12.5756
5.163
0.389091
77.4569
-35.3121
0.732
-18.4125
12.1424
-14.2586
6.46812
7.76
0.125625
40.1
-21.6994
7.41769
46.0846
53.4654
11.5841
-7.41077
-0.655833
-18.4324
0.603846
-0.117333
-0.187
0.122222
40.424
-35.4036
-10.8105
-5.59313
41.4488
-20.333
8.11667
-20.5107
-18.6782
12.5906
-5.88562
5.32526
-0.432143
-21.7589
-0.0813636
0.0263636
-68.5621
42.5807
54.9268
-0.145
-33.502
85.0615
17.7306
19.0619
37.725
0.409091
6.53333
-33.34
-17.4188
21.2095
42.85
0.722857
-33.6544
-55.31
6.63875
-22.0728
75.133
0.169286
1.08688
0.373333
41.3182
-0.674
29.3118
53.7354
-0.166923
-8.31909
-65.0114
0.365882
4.49105
-9.84727
-0.146667
-6.79176
-0.174
-8.80636
63.3827
-22.3494
24.6717
0.17875
-5.31263
100.646
76.4135
9.775
-12.7933
-4.52143
-4.92105
6.05765
7.24615
0.959091
-0.670625
9.24
-36.7591
21.1136
-18.982
-40.392
-3.7444
7.55909
65.6875
10.3573
32.0094
-41.4559
53.8093
-11.9118
-13.1787
28.8821
-13.1829
-14.2129
13.634
11.1478
1.51214
-5.91333
0.749524
0.458261
6.98429
68.8056
-71.3714
25.1881
21.3026
53.9569
-28.3007
5.33333
-0.29625
-0.165714
22.5994
-13.142
-99.9318
-57.2336
0.329231
-6.33857
-41.9675
6.99933
-6.88537
-5.9
-6.325
22.71
-10.534
-12.9507
-6.20214
-25.2625
-34.9224
68.7053
-58.0105
-29.2886
-0.597
23.1846
18.757
-10.538
-4.98235
-0.391333
-31.4531
-8.76667
-28.7014
-18.7069
9.18455
-0.334667
-6.12706
-0.389167
47.3824
16.3137
36.3532
-5.06048
-5.73722
-45.0391
-0.589
22.6708
5.19722
53.5759
0.519444
-10.3611
6.34467
45.7427
-23.0815
-12.5953
56.51
-24.7842
-22.7592
-0.246471
0.376429
-10.212
-0.47
-0.34875
-6.24889
-0.217143
6.87188
-0.0309091
-27.0333
0.100556
16.5283
-21.5748
-25.2112
-29.8347
50.329
13.2047
-40.8759
20.8068
6.82647
14.4264
-66.6583
19.918
10.7279
-0.68875
42.7019
37.1268
0.567273
60.1433
-0.168
18.1037
-26.4567
16.8058
53.1882
10.0227
26.2126
-18.6445
-5.26547
-11.3688
-23.6508
-0.162353
-21.73
-0.0553333
-7.23692
0.439286
56.1606
6.17889
-7.66786
-6.92
37.9525
46.7246
-18.0625
-7.97308
0.143
-5.87059
-5.69889
11.5722
-7.01538
33.3247
5.71188
0.429167
-39.718
5.23867
-7.64077
1.20583
-0.206923
-0.0408333
-31.2277
-50.6644
12.4769
-0.332667
-0.287333
-41.2394
6.49533
14.2529
-9.10455
-26.812
-0.0271429
-0.226667
6.365
-6.10933
-1.154
6.25375
8.14583
8.81
-0.07
26.5163
-13.628
0.412308
5.632
0.593846
52.9568
0.988889
27.2255
-10.432
-46.7327
-25.4495
43.3544
7.82231
-4.14789
-46.384
-0.173333
0.92
10.5079
-1.06556
43.8406
-16.6883
11.205
74.6831
68.0526
-12.2247
73.2527
0.23
5.86875
0.408235
-28.3779
1.03
0.718462
85.9957
99.9794
-0.564118
0.600455
4.88833
5.69176
6.95688
21.6129
6.87
0.192857
36.9668
-21.4971
4.77053
0.0944444
21.7616
-18.7469
-0.257692
16.8292
-0.188182
-5.53444
0.39
-84.2631
-0.0564286
41.8524
-11.135
-38.5615
-10.1274
-8.55083
0.0317647
-6.14124
0.55625
18.735
-0.797143
-16.115
-14.6879
-0.103846
5.92611
-40.06
-16.5108
-6.82467
61.4908
4.83789
38.7938
-8.94091
60.063
13.1227
1.63444
42.6457
-8.70636
-26.2587
12.71
-0.1125
-28.58
28.11
64.8347
-30.4592
10.8168
-0.0644444
0.0255556
-4.69727
-5.42722
0.0927273
0.578235
-45.9273
30.371
28.555
46.702
-4.966
15.8553
-14.7993
28.9329
-10.4122
28.2314
-8.37
9.59048
-4.80053
0.508667
12.7225
7.272
29.3512
-6.52412
-45.583
23.0908
0.90375
7.09467
0.395
-6.296
7.71071
6.51187
-6.77625
-0.206842
49.9061
0.2675
-21.4929
-28.5164
27.1982
9.48909
-11.1653
73.622
40.47
0.2945
-35.3453
-4.67182
26.6533
-5.31529
-11.6975
43.73
-17.6082
0.155
-49.6437
-27.8443
33.3878
