64.0403
0.773266
0.258576
-1.47329
38.3353
2.37738
-0.695664
6.5537
-7.43732
-1.08228
-0.36193
-83.8591
49.8163
-90.762
4.39166
72.1482
5.06627
5.75593
55.6667
-0.578327
-77.9111
-61.4174
-1.07647
-4.36167
7.69454
-91.871
0.764043
0.63207
-70.4808
75.079
1.04192
-21.5545
36.4309
0.42165
84.7222
2.09187
-3.18855
81.614
-53.0714
-89.1427
2.76348
-8.13088
-3.71072
5.08273
-94.6902
0.0965931
-78.4275
-75.9884
-62.6561
78.2594
-1.27049
-3.58985
5.08898
-81.956
0.0249111
-85.8936
-3.00859
61.2184
-66.4943
0.655833
76.2749
0.125138
74.6229
-66.3989
-0.245219
-63.2908
67.0727
0.79887
-87.2513
1.00682
80.7283
-66.0252
79.4102
-1.12187
-11.214
-43.4793
7.83583
-7.12576
-0.572979
1.48312
-6.58458
50.7234
7.72647
0.189495
82.4663
-80.427
-63.4531
-81.8341
0.204547
0.661703
-70.2332
0.525123
89.4799
1.72477
0.0477475
9.3581
-72.6559
0.933358
-78.9365
0.632942
3.07473
-81.3788
7.06409
44.0831
-0.103441
-1.82137
-67.3233
47.8508
-2.58817
32.2178
-76.9843
-87.6737
55.703
3.6485
-19.9355
-4.47536
1.0699
0.435144
-76.5005
0.161143
4.22102
64.9639
60.259
1.75349
0.052131
88.0786
6.01325
83.1214
1.79042
-7.11756
80.1686
74.508
85.4202
-85.6852
2.84329
72.9941
0.906707
55.9924
66.1399
90.2031
-79.3359
-86.0943
0.964019
-0.0698194
86.7307
75.9837
1.9071
-4.5379
-2.86331
-7.88729
41.1288
-0.804328
-17.573
-0.215346
81.713
-0.486304
1.57499
92.7943
-1.62657
40.2238
71.7115
2.68092
-33.0024
-40.4446
3.28828
77.7937
1.35765
-73.3298
-3.54481
63.7844
-0.228274
-89.0785
-73.5488
-2.67261
-7.51428
-54.7481
-24.2911
-44.3264
-1.11573
-0.0608314
70.3029
-0.35159
38.8948
-3.08064
-3.78981
-77.0585
-9.12091
-84.3832
-4.36945
83.6698
52.6424
-0.270482
-2.92569
-6.43403
-1.60985
-77.7885
-91.3407
-1.23444
-67.7849
-5.52549
1.1841
0.0144757
81.3944
-63.7132
-85.6152
37.6616
81.4934
44.0066
-3.63434
-85.3094
-0.775558
-3.49698
-11.1387
-84.5856
-60.1714
-1.51821
-0.318425
-4.92609
9.64705
1.29486
-68.5687
73.3257
76.8238
-81.7077
-1.64418
2.09479
69.0937
0.0975049
-13.2065
0.726359
-1.28298
-0.0144193
78.5585
91.3932
1.42457
0.359945
-1.53414
83.2189
-0.659741
-0.300898
85.7951
-63.1121
-4.38536
0.378441
83.7838
-77.2361
76.7256
-2.25645
-1.54267
24.5234
-4.24384
24.7806
-4.03269
0.273035
-5.65763
-86.7549
-0.975657
-6.41128
-76.5848
-80.7347
93.2167
-3.02741
-77.7542
-76.8472
12.3856
9.05598
-0.00528946
-0.829847
-1.49143
-0.896666
71.0891
5.6094
-57.7208
6.06558
-60.6424
-0.130728
56.3414
-25.315
0.36983
86.2821
0.440313
-1.87119
-0.953104
-85.9773
0.792239
-87.9448
96.0838
-0.218023
-1.39156
0.0581229
90.5302
-1.45474
-1.96058
-74.945
5.30711
-0.589402
0.594688
-38.5512
-3.36825
1.08903
-0.121458
-1.89598
-0.0281822
0.176859
-0.822986
49.7526
1.06438
21.6803
78.7735
-0.0949079
0.474066
32.3935
-9.96998
-81.9945
-81.2902
87.2822
86.5375
70.007
-5.67913
0.193319
1.89675
64.6104
86.3669
1.40951
-0.0669544
-50.1852
-5.72677
-0.497883
-75.5527
49.709
38.8836
51.8451
32.753
74.561
-84.2685
85.6723
-82.8095
64.3722
0.756396
96.0278
-12.8643
-82.3386
-0.195044
0.722574
-47.6538
89.2549
-53.7861
-1.56118
0.428308
0.500541
-1.90949
1.79562
-3.49135
3.59996
-62.7338
0.214235
-48.6636
3.57447
-7.97218
6.00892
-48.9845
-73.8702
3.75605
-2.67988
-79.1177
80.8243
-80.653
-0.330953
2.58222
68.668
-2.86702
-0.79355
-17.6337
-59.3766
33.9301
58.5775
-101.183
-54.6856
85.3765
70.9723
58.9429
76.1936
-0.907515
-51.8613
-55.8237
-62.6621
-54.662
-4.03072
2.56538
86.5616
-47.6719
0.830818
98.8319
2.24594
6.14464
2.98497
81.4905
-5.46772
-2.64385
2.87167
94.6139
86.1088
-5.43084
-59.0733
-3.65288
-0.335252
1.07243
9.32784
-88.9029
58.1569
-0.414985
-17.0911
-78.5175
-0.749367
-4.44031
41.7669
1.36654
85.0937
-6.52436
-3.86168
-85.3777
0.213484
-42.5622
-45.0836
-87.985
15.3897
-70.9011
6.48035
-81.3018
-0.00554797
-61.0589
-84.167
4.12893
-2.44907
92.6808
-0.956175
-89.9537
-0.70641
82.6832
0.637102
1.91571
-83.5548
66.2607
85.5369
-92.2683
-45.3674
-83.1398
65.9065
-84.1139
-50.8586
4.52609
0.516709
0.419241
90.5611
-0.661497
-85.8345
-1.19169
1.05211
71.3633
0.608469
0.340394
26.8283
30.2572
-74.11
0.114227
7.25769
0.120433
-1.41036
11.2333
-57.3729
-3.52855
56.6849
74.6399
-75.1843
59.1939
-71.7291
2.38414
62.3193
65.8924
-0.170543
83.0931
-2.74377
-84.8798
0.0169502
60.6157
80.0928
0.14461
93.995
-82.2956
3.66385
19.3807
87.3875
3.43675
-59.5281
-0.485029
-77.165
44.4029
-85.5548
-84.2432
-0.360282
-75.3057
-1.15353
2.24082
54.5371
87.7734
-11.1109
5.51726
-3.92694
19.2973
0.53612
73.7161
-82.4178
-3.39423
-81.3098
-7.69661
76.8751
2.69238
0.677131
0.864311
72.9227
79.3031
86.4655
19.7043
61.1225
1.23355
0.720169
2.43937
0.555656
-13.5003
-2.06523
-1.13078
82.1416
-5.22373
-63.4039
80.0746
0.543135
93.0098
-53.1716
-4.26391
0.0285396
95.0426
85.1118
-4.16055
-0.370121
-1.30286
0.230423
-2.62228
70.6389
0.848242
-1.2373
-51.1475
2.48531
1.05097
-0.479735
33.5702
-2.28373
3.27663
0.560615
-55.9093
43.2657
88.5424
77.405
62.8084
3.48803
78.302
-82.3922
-3.00775
-4.93417
-63.308
-80.5281
84.9517
-42.7916
47.8336
-3.24238
0.208991
-2.23931
90.8214
-76.8248
-90.7586
24.9632
-36.7187
67.1889
-0.350712
-4.28627
89.3123
-19.002
12.8939
3.96419
-81.5154
-79.2318
63.0202
-0.576379
-0.212924
88.3192
81.0823
0.711231
18.9488
50.5038
-4.42122
-1.1155
77.8951
0.274844
82.7675
38.6515
-1.30821
86.56
92.9931
-70.6533
-1.38278
1.57463
-14.2271
-2.16819
-0.22694
-0.367239
63.2974
84.4781
-83.9435
-4.71312
-0.157063
-70.9436
-14.5069
1.53792
-3.36438
-5.53174
-76.465
2.34649
1.53431
-0.76104
-65.7948
4.82446
-0.0554754
-76.2054
88.2832
68.341
0.284059
-0.0529299
-17.6612
-74.7937
-77.6302
-98.6223
0.0134958
18.3973
4.57262
-80.8324
6.8139
-77.761
3.53072
59.4048
-88.5815
-4.44425
-74.1758
92.275
-2.45771
-2.53677
4.76264
40.3368
-1.66106
88.0917
-57.7697
0.737629
0.578376
51.2221
-5.27723
3.10762
-3.43738
2.61415
-3.47182
-0.107852
-5.31883
97.784
-49.8414
-52.9175
1.09644
-6.78191
60.9232
89.9559
-75.2611
70.3771
-1.96773
-0.142437
1.27669
-0.612275
83.6257
-2.68664
7.19423
40.5217
69.7563
81.0792
44.5072
0.503778
-0.662661
48.1323
2.00051
89.588
-90.325
-71.3218
-4.90172
-2.92199
3.11279
-9.62402
-4.08399
-0.447775
0.560194
1.78815
1.17831
-4.09258
-3.3451
-1.16749
74.0212
65.3156
37.7028
16.1508
-78.7439
-0.641546
-2.18233
-2.15366
1.06758
81.5526
-1.55093
-98.9161
-90.4647
0.566958
0.477439
-46.2831
2.38624
-0.149087
-1.83342
-3.16434
52.7433
-72.1908
77.2884
-1.26372
-10.7116
-79.0845
89.4794
17.1543
-78.2267
-1.23685
6.7154
62.9595
-3.84219
0.806622
-1.5795
-67.5698
-1.8272
-86.3783
-41.7936
-2.09749
6.203
-1.82883
-2.85293
-58.7162
3.99454
86.1394
-0.989627
-2.63649
69.8754
-1.34549
-75.2014
4.37637
88.283
0.500798
0.787112
2.05389
85.5358
80.5381
-14.6655
11.9419
-84.045
51.705
-6.557
1.43137
43.5945
0.805107
-0.832828
-11.2767
-0.0398618
3.58389
0.691031
-13.138
-0.77374
79.2326
-3.89177
59.7091
-72.8633
57.3941
-73.5127
-35.5531
-46.3721
1.89581
-0.30846
55.6594
64.8254
-42.2974
0.388847
76.613
45.2625
-70.3737
86.8484
-1.62047
26.996
45.7092
48.1264
78.7294
3.55602
-34.9429
-6.75325
-8.83414
-74.4484
68.5429
1.49284
-2.28833
1.74709
-2.11645
-0.786071
86.4332
1.13444
-6.41819
-50.3668
95.9584
88.969
-4.38211
-9.27017
-1.39385
-2.74848
28.9547
-4.71004
-2.92309
88.6347
1.9741
0.453333
-70.4568
-0.165724
1.60169
0.381787
1.10202
-0.506752
-64.5089
-90.3279
-80.5805
-65.8453
-0.509856
55.7716
-1.61465
91.7446
-3.19138
-11.5456
-1.12261
-0.92963
0.750231
0.487171
-1.94499
71.1941
2.68668
-44.4983
-1.43478
83.6651
-3.18942
4.40232
2.28136
0.562255
83.5647
0.360522
-66.2413
-3.79139
-30.1545
45.6879
67.314
0.612054
4.68195
14.8686
-1.09441
1.28769
-1.3525
-0.69951
-31.9725
76.5902
-6.23193
61.4695
93.3852
-7.34468
91.7415
0.310421
28.7332
-1.96167
0.902722
1.07176
0.242096
95.747
98.0954
0.0866201
5.00061
-0.508154
69.5449
2.10845
-78.0916
0.0347249
89.5925
-53.4544
74.6441
3.55895
-0.960542
-57.4651
-89.6836
3.19153
23.7813
0.373873
-0.967236
2.25706
-92.7715
0.0268477
-83.7795
-15.7842
74.1602
-4.3486
-33.0931
-7.43912
-2.19901
0.564905
10.6455
4.45494
-11.3666
-6.00409
-0.118673
-58.8459
-97.129
85.0503
-6.58014
-70.3578
2.6469
90.421
0.285356
98.0902
85.9123
2.13658
-80.0797
0.58784
-92.6037
1.64782
-0.479493
-1.52147
-77.1216
11.9009
-1.46812
2.21691
0.950043
1.05935
-38.0834
-1.05914
1.92825
2.64046
77.3987
54.9751
-54.3922
-80.3625
-1.34822
4.64709
-92.8534
-67.3454
-5.83073
68.2328
-2.60923
1.39193
0.219764
1.56177
2.98752
3.36801
-63.4434
-59.3055
46.5031
73.709
-0.612353
1.46912
0.218626
-3.77888
2.85613
6.05639
-68.3476
0.427255
90.3457
0.363263
82.7671
-7.93125
61.2515
4.85708
-47.0919
94.8635
40.7965
0.134068
-68.2235
-3.07416
79.3841
0.166132
-0.160253
-17.1403
-8.89907
-0.451428
69.3551
-84.7757
-75.3255
